tree
version=v4
num_class=1
num_tree_per_iteration=1
label_index=0
max_feature_idx=7
objective=binary sigmoid:1
feature_names=Year Nosocomial MovAvgRes 0 1 2 3 4
feature_infos=[0:1] [0:1] [0:1] [-1.0706236665879014:3.6179287946561596] [-0.67015696143894721:1.3021441149696611] [-0.60991881120342339:0.85553962744559287] [-0.61430055912258075:0.66763816252814623] [-0.33086237371425342:0.61203451733816072]
tree_sizes=659 659 656 665 666 657 669 666 667 656 659 668 668 663 668 662 661 660 668 662 666 665 675 662 662 667 663 667 665 665 674 665 669 666 673 667 662 671 670 674 669 661 674 673 666 666 659 667 668 663 670 671 657 676 671 669

Tree=0
num_leaves=5
num_cat=0
split_feature=2 0 5 2
split_gain=414.833 80.9303 68.2873 44.6595
threshold=0.4476133887898594 0.64285714285713891 0.51906917660662011 0.22850817901565709
decision_type=2 2 2 2
left_child=2 -2 3 -1
right_child=1 -3 -4 -5
leaf_value=-0.8666071358437476 -0.49560983186265739 -0.66043424723623945 -0.3522957270216111 -0.736473621584669
leaf_weight=579.9454237818718 339.44254240393639 303.88610172271729 16.121864408254623 187.94118645787239
leaf_count=2626 1537 1376 73 851
internal_value=-0.711539 -0.573467 -0.824836 -0.834757
internal_weight=0 643.329 784.008 767.887
internal_count=6463 2913 3550 3477
is_linear=0
shrinkage=1


Tree=1
num_leaves=5
num_cat=0
split_feature=2 6 6 2
split_gain=251.372 50.5141 44.8074 40.0991
threshold=0.47506206273978796 -0.34732579101030625 -0.29041503789939954 0.60462498007333021
decision_type=2 2 2 2
left_child=1 -1 -2 -4
right_child=2 -3 3 -5
leaf_value=0.15601484625316528 0.41031234118936638 -0.096992459921915408 0.016500516350573275 0.14605404552362769
leaf_weight=44.904219761490822 26.348612070083618 784.78621074557304 197.60535331070423 368.19159828126431
leaf_count=189 112 3704 864 1594
internal_value=0 -0.0832993 0.114579 0.100807
internal_weight=0 829.69 592.146 565.797
internal_count=6463 3893 2570 2458
is_linear=0
shrinkage=0.232


Tree=2
num_leaves=5
num_cat=0
split_feature=2 5 2 2
split_gain=157.894 45.3544 42.4575 32.5134
threshold=0.22850817901565709 0.3285000299994042 0.63411933535843601 0.79404239766081885
decision_type=2 2 2 2
left_child=1 -1 -2 -4
right_child=2 -3 3 -5
leaf_value=-0.11440874881256995 0.021055211587457906 0.19695234338262294 0.17810761285888566 0.019152791382569315
leaf_weight=516.59119886159897 545.78123964369297 26.470927372574806 217.795578956604 101.55798356235027
leaf_count=2584 2429 115 910 425
internal_value=0 -0.0992318 0.0603694 0.127558
internal_weight=0 543.062 865.135 319.354
internal_count=6463 2699 3764 1335
is_linear=0
shrinkage=0.232


Tree=3
num_leaves=5
num_cat=0
split_feature=1 5 5 3
split_gain=105.246 32.4531 23.3295 19.3338
threshold=1.0000000180025095e-35 0.19680018639452443 0.40453243016558449 0.19141793122651773
decision_type=2 2 2 2
left_child=1 -1 3 -2
right_child=2 -3 -4 -5
leaf_value=-0.088207799933695014 0.078881305065858554 0.066400357065183199 0.26914068054662416 -0.001941367939361391
leaf_weight=575.29883445799351 462.45174966752529 83.707170069217682 27.42391911149025 243.01841981709003
leaf_count=2976 1962 368 111 1046
internal_value=0 -0.0685694 0.0592008 0.0510397
internal_weight=0 659.006 732.894 705.47
internal_count=6463 3344 3119 3008
is_linear=0
shrinkage=0.232


Tree=4
num_leaves=5
num_cat=0
split_feature=1 4 4 4
split_gain=63.4545 24.0406 22.9715 25.9678
threshold=1.0000000180025095e-35 0.9583438280997344 -0.078898845569411943 -0.087043606670395623
decision_type=2 2 2 2
left_child=2 -2 3 -1
right_child=1 -3 -4 -5
leaf_value=0.0037434802265563913 0.051750643010425562 -0.21320446653543196 -0.078796238360584983 0.45164655032350204
leaf_weight=136.42278508841991 720.58194872736931 18.916003495454788 492.25740687549114 7.3419100642204276
leaf_count=696 3040 79 2608 40
internal_value=0 0.0449732 -0.0549688 0.0266174
internal_weight=0 739.498 636.022 143.765
internal_count=6463 3119 3344 736
is_linear=0
shrinkage=0.232


Tree=5
num_leaves=5
num_cat=0
split_feature=2 5 4 6
split_gain=45.8511 29.2339 21.3016 18.9241
threshold=0.60462498007333021 0.40453243016558449 0.9583438280997344 0.18192358369075093
decision_type=2 2 2 2
left_child=1 3 -2 -1
right_child=2 -3 -4 -5
leaf_value=-0.047228588371823116 0.07518294623346071 0.13395523898562345 -0.1851123738754272 0.099729503365344696
leaf_weight=850.43748591840267 390.49305155873299 55.811037093400955 17.688686370849609 49.932551085948944
leaf_count=4341 1583 229 78 232
internal_value=0 -0.0289789 0.063903 -0.0390786
internal_weight=0 956.181 408.182 900.37
internal_count=6463 4802 1661 4573
is_linear=0
shrinkage=0.232


Tree=6
num_leaves=5
num_cat=0
split_feature=0 4 1 0
split_gain=32.6457 33.2821 14.5303 14.3951
threshold=0.64285714285713891 -0.085296690047325166 1.0000000180025095e-35 0.9285714285714165
decision_type=2 2 2 2
left_child=-1 3 -3 -2
right_child=1 2 -4 -5
leaf_value=0.037662756543378209 0.088098134912881806 -0.11010563754882886 -0.028948004770714974 -0.024066082189353938
leaf_weight=627.51404708623886 128.73195995390415 243.76458397507668 231.50651486217976 118.07172036170959
leaf_count=2906 597 1392 992 576
internal_value=0 -0.0346806 -0.0705734 0.0344384
internal_weight=0 722.075 475.271 246.804
internal_count=6463 3557 2384 1173
is_linear=0
shrinkage=0.232


Tree=7
num_leaves=5
num_cat=0
split_feature=0 6 4 3
split_gain=19.5602 25.1822 21.6588 17.6195
threshold=0.64285714285713891 -0.044775073553810635 -0.054588271204638848 0.86532563543189023
decision_type=2 2 2 2
left_child=1 3 -2 -1
right_child=2 -3 -4 -5
leaf_value=0.24854955446379798 0.0063822653162350345 0.0076274625926130123 -0.076078264799396195 0.056282543988764457
leaf_weight=41.799564987421036 417.56413170695305 524.48595304787159 290.8650094717741 66.418322563171387
leaf_count=184 2050 2446 1507 276
internal_value=0 0.0286516 -0.0274742 0.130546
internal_weight=0 632.704 708.429 108.218
internal_count=6463 2906 3557 460
is_linear=0
shrinkage=0.232


Tree=8
num_leaves=5
num_cat=0
split_feature=2 6 6 3
split_gain=23.1459 18.3744 15.1539 10.8716
threshold=0.22850817901565709 0.1119581248891643 -0.13650736754145124 -0.76008113078866402
decision_type=2 2 2 2
left_child=1 2 -1 -2
right_child=3 -3 -4 -5
leaf_value=0.062776363717812506 0.061913747571891727 0.082680153964605957 -0.076340481802861029 0.0048381914897792436
leaf_weight=47.766543373465538 252.91896997392178 55.215892061591148 358.07074955105782 619.84876789152622
leaf_count=243 1084 316 2140 2680
internal_value=0 -0.0428832 -0.0599666 0.0213781
internal_weight=0 461.053 405.837 872.768
internal_count=6463 2699 2383 3764
is_linear=0
shrinkage=0.232


Tree=9
num_leaves=5
num_cat=0
split_feature=2 4 4 6
split_gain=18.0314 20.1071 13.3094 11.024
threshold=0.63411933535843601 0.17428766608884827 0.12163352726035159 0.18192358369075093
decision_type=2 2 2 2
left_child=3 2 -2 -1
right_child=1 -3 -4 -5
leaf_value=-0.0225187671107983 0.059270164035596019 -0.080199358590791497 0.27004962440930902 0.078899422422852153
leaf_weight=936.46117252111435 253.54596693813801 55.862201616168022 17.219248160719872 61.4743941873312
leaf_count=4860 1025 241 69 268
internal_value=0 0.046529 0.0726746 -0.0162712
internal_weight=0 326.627 270.765 997.936
internal_count=6463 1335 1094 5128
is_linear=0
shrinkage=0.232


Tree=10
num_leaves=5
num_cat=0
split_feature=2 4 3 3
split_gain=13.1927 26.961 11.8437 9.58373
threshold=0.20695291519212913 0.020914351107750889 -0.5145529060996531 -0.80261045761233329
decision_type=2 2 2 2
left_child=1 3 -3 -1
right_child=-2 2 -4 -5
leaf_value=-0.13129038958263806 0.013668754991448134 0.29647244967687286 0.042730853986863077 -0.041204979514513324
leaf_weight=97.95330248773098 954.608039021492 11.503436848521231 71.07684326171875 181.04197040200233
leaf_count=631 4292 62 379 1099
internal_value=0 -0.0383669 0.0780771 -0.0728333
internal_weight=0 361.576 82.5803 278.995
internal_count=6463 2171 441 1730
is_linear=0
shrinkage=0.232


Tree=11
num_leaves=5
num_cat=0
split_feature=6 3 6 6
split_gain=9.49844 19.9232 15.739 14.8467
threshold=-0.16949456682107036 0.86532563543189023 -0.0041763159438513199 -0.010949182221739403
decision_type=2 2 2 2
left_child=1 -1 3 -2
right_child=2 -3 -4 -5
leaf_value=0.23718821619745192 -0.024139571184404462 0.014672459417959464 0.015675774925967622 -0.14807299673477192
leaf_weight=26.505757138133049 438.3046538233757 118.41075827181339 667.14865107834339 59.034577786922455
leaf_count=116 2288 533 3241 285
internal_value=0 0.0553714 -0.00761179 -0.0388506
internal_weight=0 144.917 1164.49 497.339
internal_count=6463 649 5814 2573
is_linear=0
shrinkage=0.232


Tree=12
num_leaves=5
num_cat=0
split_feature=7 2 4 3
split_gain=9.77297 9.82163 13.3955 9.92135
threshold=-0.30687779551989353 0.17144892144892149 -0.034730220011466008 -0.76008113078866402
decision_type=2 2 2 2
left_child=-1 2 -2 -3
right_child=1 3 -4 -5
leaf_value=0.39136978762935426 -0.090424614158927982 0.044637417576273014 0.011822242555719138 -0.0056614393433446425
leaf_weight=3.4161999225616446 140.95032316446304 297.12661348283291 135.03971794247627 728.78149423003197
leaf_count=14 921 1356 782 3390
internal_value=0 -0.00154535 -0.040396 0.00890627
internal_weight=0 1301.9 275.99 1025.91
internal_count=6463 6449 1703 4746
is_linear=0
shrinkage=0.232


Tree=13
num_leaves=5
num_cat=0
split_feature=0 2 2 7
split_gain=8.32643 7.31424 19.8451 8.29976
threshold=0.9285714285714165 0.66162492767997372 0.69537037037037053 0.21596041051868933
decision_type=2 2 2 2
left_child=1 3 -3 -1
right_child=-2 2 -4 -5
leaf_value=0.0064480295331766167 -0.044991823428231638 0.20307262846435725 0.014694666532648466 -0.060369348590400426
leaf_weight=766.31977960467339 192.6306444182992 35.760623872280121 190.16309913992882 115.08790580928326
leaf_count=3935 1014 146 783 585
internal_value=0 0.0072696 0.0445123 -0.00227651
internal_weight=0 1107.33 225.924 881.408
internal_count=6463 5449 929 4520
is_linear=0
shrinkage=0.232


Tree=14
num_leaves=5
num_cat=0
split_feature=2 5 2 1
split_gain=6.69038 5.97146 6.23403 3.69789
threshold=1.0000000180025095e-35 0.40453243016558449 0.66162492767997372 1.0000000180025095e-35
decision_type=2 2 2 2
left_child=-1 2 -2 -3
right_child=1 3 -4 -5
leaf_value=0.33534813698095811 -0.012901275998442627 0.022602364408552761 0.028911115109508771 0.13705168569102402
leaf_weight=3.1869890689849845 989.74548889696598 38.112809926271439 238.09713862836361 25.269934669137001
leaf_count=16 5193 161 982 111
internal_value=0 -0.00120862 -0.00479322 0.0682319
internal_weight=0 1291.23 1227.84 63.3827
internal_count=6463 6447 6175 272
is_linear=0
shrinkage=0.232


Tree=15
num_leaves=5
num_cat=0
split_feature=4 5 5 3
split_gain=6.88215 5.23494 10.3205 5.30459
threshold=0.9583438280997344 -0.23543610000739715 -0.15919779965071187 1.9763542249136103
decision_type=2 2 2 2
left_child=1 3 -3 -1
right_child=-2 2 -4 -5
leaf_value=0.22666708542583858 -0.13147276391450261 -0.079236463409804364 0.0042507974793497098 0.038516501831462116
leaf_weight=9.2798544317483884 21.174979269504547 85.855029746890068 1110.9624974280596 61.619138225913048
leaf_count=41 108 476 5550 288
internal_value=0 0.00189034 -0.00173825 0.0631432
internal_weight=0 1267.72 1196.82 70.899
internal_count=6463 6355 6026 329
is_linear=0
shrinkage=0.232


Tree=16
num_leaves=5
num_cat=0
split_feature=7 7 5 5
split_gain=5.71924 5.97812 9.10075 7.37303
threshold=-0.30687779551989353 -0.21166991415710518 0.057720147587320657 0.35311618576870302
decision_type=2 2 2 2
left_child=-1 3 -3 -2
right_child=1 2 -4 -5
leaf_value=0.29874134083602255 -0.093549626023254784 -0.009328404529230826 0.036127969673633242 0.12894955847070122
leaf_weight=3.4339883625507346 63.754486501216888 886.7513754144311 323.56401476264 9.168999105691908
leaf_count=14 279 4556 1577 37
internal_value=0 -0.00106304 0.00282384 -0.0655738
internal_weight=0 1283.24 1210.32 72.9235
internal_count=6463 6449 6133 316
is_linear=0
shrinkage=0.232


Tree=17
num_leaves=5
num_cat=0
split_feature=4 2 2 2
split_gain=4.8188 5.46442 6.94793 5.38289
threshold=1.2416504902210634 0.66162492767997372 0.68212030574941862 0.64571150097465912
decision_type=2 2 2 2
left_child=1 3 -3 -1
right_child=-2 2 -4 -5
leaf_value=-0.0034821615734359837 -0.16248480638910998 0.13949473440976778 0.01808043429101381 -0.11252733745915029
leaf_weight=1021.0725241452456 9.7754562199115735 29.047557860612869 200.28299148380756 24.961310774087906
leaf_count=5365 54 123 820 101
internal_value=0 0.00102623 0.0334591 -0.00608429
internal_weight=0 1275.36 229.331 1046.03
internal_count=6463 6409 943 5466
is_linear=0
shrinkage=0.232


Tree=18
num_leaves=5
num_cat=0
split_feature=7 3 3 5
split_gain=5.24141 13.0243 8.8532 14.3511
threshold=-0.043651020497155489 -0.27179298095929078 0.19141793122651773 -0.13703800440007233
decision_type=2 2 2 2
left_child=2 -2 3 -1
right_child=1 -3 -4 -5
leaf_value=-0.014687549856397785 -0.047919337313221073 0.017966523662559311 -0.016517930147819673 0.078873086301175302
leaf_weight=154.56240140646696 322.13569189608097 323.83095195889473 275.56688879430294 205.65225632488728
leaf_count=862 1722 1569 1356 954
internal_value=0 -0.01489 0.0147826 0.0387277
internal_weight=0 645.967 635.782 360.215
internal_count=6463 3291 3172 1816
is_linear=0
shrinkage=0.232


Tree=19
num_leaves=5
num_cat=0
split_feature=3 4 4 5
split_gain=5.59178 5.86615 7.0521 2.21575
threshold=3.1668015031502761 -0.16050894873307012 -0.075461299325868536 -0.46157541339946867
decision_type=2 2 2 2
left_child=1 -1 -3 -2
right_child=3 2 -4 -5
leaf_value=-0.11354814778049452 0.022813308943320447 0.034051702487279727 -0.01079816238290459 0.099936033336498947
leaf_weight=25.817886516451836 42.727408587932587 236.3942985534668 935.284891910851 37.779896572232246
leaf_count=154 205 1103 4830 171
internal_value=0 -0.00415976 -0.0017494 0.0590049
internal_weight=0 1197.5 1171.68 80.5073
internal_count=6463 6087 5933 376
is_linear=0
shrinkage=0.232


Tree=20
num_leaves=5
num_cat=0
split_feature=0 6 6 7
split_gain=4.46283 6.75246 9.1337 6.38693
threshold=0.64285714285713891 -0.023887293115659434 -0.026685598069274875 -0.12092151101966116
decision_type=2 2 2 2
left_child=1 2 -1 -2
right_child=3 -3 -4 -5
leaf_value=0.042329145588830823 0.035788191516303948 0.00078086745013086355 0.2718234977720127 -0.023772786993727511
leaf_weight=130.97250983119011 117.62846014648676 468.55169661343098 10.050522476434706 550.02861296385527
leaf_count=583 588 2275 48 2969
internal_value=0 0.0141768 0.0586849 -0.0132793
internal_weight=0 609.575 141.023 667.657
internal_count=6463 2906 631 3557
is_linear=0
shrinkage=0.232


Tree=21
num_leaves=5
num_cat=0
split_feature=4 2 6 0
split_gain=3.85375 8.15939 6.69602 7.08181
threshold=-0.06081976683336103 0.10507755967304676 -0.16949456682107036 1.0000000180025095e-35
decision_type=2 2 2 2
left_child=1 -1 -2 -4
right_child=2 -3 3 -5
leaf_value=-0.096029605213732758 0.049989609568534488 0.025049031989413113 0.1102380825641161 -0.021447134177989075
leaf_weight=32.183996737003326 89.5441714823246 432.93627048283815 22.697722762823105 696.04184157401323
leaf_count=245 392 2122 108 3596
internal_value=0 0.016671 -0.00983525 -0.0172885
internal_weight=0 465.12 808.284 718.74
internal_count=6463 2367 4096 3704
is_linear=0
shrinkage=0.232


Tree=22
num_leaves=5
num_cat=0
split_feature=6 6 4 2
split_gain=3.12925 8.70083 6.31239 5.11364
threshold=-0.0041763159438513199 -0.010949182221739403 -0.06081976683336103 0.33810325476992154
decision_type=2 2 2 2
left_child=1 3 -2 -1
right_child=2 -3 -4 -5
leaf_value=-0.031411832472548272 0.041938267225191797 -0.10087909403517505 -0.0056970365712696704 0.014225846825997573
leaf_weight=215.90688536316156 230.04863709211349 54.169584557414055 428.86603597551584 340.63656316697598
leaf_count=1416 1079 285 2162 1521
internal_value=0 -0.0121182 0.010934 -0.00347895
internal_weight=0 610.713 658.915 556.543
internal_count=6463 3222 3241 2937
is_linear=0
shrinkage=0.232


Tree=23
num_leaves=5
num_cat=0
split_feature=0 3 2 3
split_gain=3.59362 7.67362 7.4425 12.4975
threshold=0.64285714285713891 -0.94357017312142211 0.17144892144892149 -0.15932059666804985
decision_type=2 2 2 2
left_child=1 -1 3 -2
right_child=2 -3 -4 -5
leaf_value=0.12328826274065834 -0.14877832843885844 0.0065899589787905624 -0.0014310550363876272 0.013190066153520618
leaf_weight=32.023876994848251 52.32426705211401 572.78569169342518 559.02382776141167 50.28087455034256
leaf_count=152 460 2754 2775 322
internal_value=0 0.012769 -0.0119727 -0.0694069
internal_weight=0 604.81 661.629 102.605
internal_count=6463 2906 3557 782
is_linear=0
shrinkage=0.232


Tree=24
num_leaves=5
num_cat=0
split_feature=4 3 3 1
split_gain=2.6961 2.45914 4.23585 0.195971
threshold=1.2416504902210634 -1.0699795682704927 -1.0614111104409014 1.0000000180025095e-35
decision_type=2 2 2 2
left_child=1 -1 -3 -2
right_child=3 2 -4 -5
leaf_value=0.14930976675226984 -0.069274522364013658 -0.11949242578437416 0.0015089070383025413 -0.14968416928476203
leaf_weight=5.9639224708080283 2.1830264478921872 15.771098196506498 1231.5532333180308 6.455658808350563
leaf_count=46 15 144 6219 39
internal_value=0 0.000689582 -2.1027e-05 -0.129364
internal_weight=0 1253.29 1247.32 8.63869
internal_count=6463 6409 6363 54
is_linear=0
shrinkage=0.232


Tree=25
num_leaves=5
num_cat=0
split_feature=2 3 3 5
split_gain=2.67548 2.31028 7.28713 2.84132
threshold=1.0000000180025095e-35 -0.96277252626348386 -0.98318658441686835 0.049415604806846154
decision_type=2 2 2 2
left_child=-1 2 -2 -3
right_child=1 3 -4 -5
leaf_value=0.19647019990881126 0.0077165335189104903 -0.012059961393947782 0.19769596667996989 0.011715857896086522
leaf_weight=3.7126779556274405 73.051732249557972 747.66738784313202 12.76637317240238 423.93156704306602
leaf_count=16 454 3865 59 2069
internal_value=0 -0.000765499 0.035978 -0.00345691
internal_weight=0 1257.42 85.8181 1171.6
internal_count=6463 6447 513 5934
is_linear=0
shrinkage=0.232


Tree=26
num_leaves=5
num_cat=0
split_feature=4 0 3 3
split_gain=2.66457 6.00232 4.84486 4.44474
threshold=-0.055640884480980701 0.9285714285714165 3.351221642809028 0.26866418307669859
decision_type=2 2 2 2
left_child=-1 2 -2 -3
right_child=1 3 -4 -5
leaf_value=0.013168896191459497 -0.0066790647555757861 -0.13041553846805742 0.11581706526821207 0.051867724425861017
leaf_weight=492.54592062532902 705.47924388945103 34.462622575461864 17.817421823740005 9.1013984680175763
leaf_count=2541 3556 243 79 44
internal_value=0 -0.00869881 -0.00366154 -0.0923329
internal_weight=0 766.861 723.297 43.564
internal_count=6463 3922 3635 287
is_linear=0
shrinkage=0.232


Tree=27
num_leaves=5
num_cat=0
split_feature=7 7 5 5
split_gain=2.56594 2.47561 3.30598 3.2998
threshold=-0.30687779551989353 -0.21166991415710518 0.35311618576870302 0.057720147587320657
decision_type=2 2 2 2
left_child=-1 2 -2 -3
right_child=1 3 -4 -5
leaf_value=0.20969289387460835 -0.062151737909347408 -0.0056306188591375775 0.087319276127489825 0.021893463250385655
leaf_weight=3.128677397966384 61.605369433760643 863.06359074264765 9.1471416056156141 321.87874644994736
leaf_count=14 279 4556 37 1577
internal_value=0 -0.000671103 -0.0428276 0.00184605
internal_weight=0 1255.69 70.7525 1184.94
internal_count=6463 6449 316 6133
is_linear=0
shrinkage=0.232


Tree=28
num_leaves=5
num_cat=0
split_feature=2 2 7 2
split_gain=2.53791 4.18021 4.4316 3.43563
threshold=0.66162492767997372 0.77142338416848233 0.47314572591838205 0.64571150097465912
decision_type=2 2 2 2
left_child=3 -2 -3 -1
right_child=1 2 -4 -5
leaf_value=-0.0029740831202728977 0.051188773120066068 -0.045879546156245919 0.051537320655507257 -0.090770002431281693
leaf_weight=1000.5447375625372 122.70692205429077 70.516855821013451 39.054660588502884 24.579531952738762
leaf_count=5380 511 314 157 101
internal_value=0 0.0217786 -0.0111572 -0.00507918
internal_weight=0 232.278 109.572 1025.12
internal_count=6463 982 471 5481
is_linear=0
shrinkage=0.232


Tree=29
num_leaves=5
num_cat=0
split_feature=3 3 0 5
split_gain=2.29655 4.76036 4.96838 4.49313
threshold=-0.51895200418355458 -0.47553739739197948 0.9285714285714165 -0.25598997925945727
decision_type=2 2 2 2
left_child=3 2 -2 -1
right_child=1 -3 -4 -5
leaf_value=0.1765731974123135 -0.039038166675336543 -0.0033159237944507818 -0.2251542961079345 0.0098039434653481878
leaf_weight=8.8679837286472303 32.949451729655266 755.95590947568417 10.082420736551283 446.97787594050169
leaf_count=41 187 3794 87 2354
internal_value=0 -0.00758845 -0.0826454 0.0130483
internal_weight=0 798.988 43.0319 455.846
internal_count=6463 4068 274 2395
is_linear=0
shrinkage=0.232


Tree=30
num_leaves=5
num_cat=0
split_feature=7 5 5 2
split_gain=1.93316 5.46441 9.26116 5.24475
threshold=-0.036437176889243285 -0.0016862895692818496 0.0039125300858950454 0.081682965583894387
decision_type=2 2 2 2
left_child=-1 3 -3 -2
right_child=1 2 -4 -5
leaf_value=0.0082838195978480657 0.34944555395137483 0.16951531137682366 -0.0013631884817687397 -0.043650458012693766
leaf_weight=679.20116437971592 1.8432690650224675 17.949008852243423 349.10473309457302 205.12032441794872
leaf_count=3453 13 82 1760 1155
internal_value=0 -0.0100045 0.00699281 -0.0401494
internal_weight=0 574.017 367.054 206.964
internal_count=6463 3010 1842 1168
is_linear=0
shrinkage=0.232


Tree=31
num_leaves=5
num_cat=0
split_feature=0 6 6 5
split_gain=1.69451 5.20977 3.72748 2.67924
threshold=0.50000000000000011 0.46918123048454979 0.1119581248891643 -0.25598997925945727
decision_type=2 2 2 2
left_child=1 2 -1 -2
right_child=3 -3 -4 -5
leaf_value=0.0050424348070466736 0.048459281588059004 -0.12719834801483756 0.059476504203680565 -0.0091014914488982343
leaf_weight=300.86484840512276 46.016278475522995 13.912411898374556 87.372581169009209 803.81954305619001
leaf_count=1464 222 57 391 4329
internal_value=0 0.0122941 0.0172928 -0.00598473
internal_weight=0 402.15 388.237 849.836
internal_count=6463 1912 1855 4551
is_linear=0
shrinkage=0.232


Tree=32
num_leaves=5
num_cat=0
split_feature=3 7 2 3
split_gain=1.46767 10.1241 5.40249 2.59788
threshold=-0.51895200418355458 0.052305167876153295 0.12157838921945789 -0.47553739739197948
decision_type=2 2 2 2
left_child=1 2 -1 -2
right_child=3 -3 -4 -5
leaf_value=-0.064781781387961507 -0.063108316470808487 -0.27679663975693691 0.022766589037103546 -0.0030215567397887393
leaf_weight=41.845168724656105 40.824353285133839 6.5110809803009024 406.30611408501863 754.58632919937372
leaf_count=347 274 48 2000 3794
internal_value=0 0.0104191 0.0145919 -0.0061055
internal_weight=0 454.662 448.151 795.411
internal_count=6463 2395 2347 4068
is_linear=0
shrinkage=0.232


Tree=33
num_leaves=5
num_cat=0
split_feature=7 7 5 4
split_gain=1.45088 1.52265 2.04444 1.50037
threshold=-0.30687779551989353 -0.21166991415710518 0.057720147587320657 0.2314734258191728
decision_type=2 2 2 2
left_child=-1 3 -3 -2
right_child=1 2 -4 -5
leaf_value=0.16549747862564868 -0.046962243399354134 -0.0044603309200638326 0.01726413799394853 0.054428691677082197
leaf_weight=2.8403625488281241 60.643006816506386 853.74745197594166 320.75712017714977 9.0245771706104261
leaf_count=14 279 4556 1577 37
internal_value=0 -0.000504059 0.00147262 -0.0338283
internal_weight=0 1244.17 1174.5 69.6676
internal_count=6463 6449 6133 316
is_linear=0
shrinkage=0.232


Tree=34
num_leaves=5
num_cat=0
split_feature=1 7 7 5
split_gain=1.20735 4.44321 3.35718 9.40479
threshold=1.0000000180025095e-35 0.23493082891923969 0.0089676719446486908 0.081982637168802802
decision_type=2 2 2 2
left_child=1 -1 -2 -4
right_child=2 -3 3 -5
leaf_value=-0.0024155080371607279 -0.0043928424169455971 -0.082787749775442177 0.0036531000606785545 0.11798233428312226
leaf_weight=492.489925801754 495.98341412842274 40.031349822878838 166.84897162020206 50.432353526353836
leaf_count=3090 2168 254 720 231
internal_value=0 -0.00845735 0.00614199 0.0301896
internal_weight=0 532.521 713.265 217.281
internal_count=6463 3344 3119 951
is_linear=0
shrinkage=0.232


Tree=35
num_leaves=5
num_cat=0
split_feature=4 4 3 0
split_gain=1.45065 3.51663 3.29128 2.52714
threshold=-0.06081976683336103 -0.06297754236924534 3.351221642809028 0.64285714285713891
decision_type=2 2 2 2
left_child=1 -1 3 -2
right_child=2 -3 -4 -5
leaf_value=0.0064100192867021484 0.0012422519548212091 0.11732908653307221 0.091230860745429798 -0.026785896581020371
leaf_weight=444.52214350551367 498.65488651394844 15.936292901635168 18.239681646227837 265.24959210306406
leaf_count=2281 2436 86 79 1581
internal_value=0 0.0102489 -0.00616443 -0.00848993
internal_weight=0 460.458 782.144 763.904
internal_count=6463 2367 4096 4017
is_linear=0
shrinkage=0.232


Tree=36
num_leaves=5
num_cat=0
split_feature=3 3 5 3
split_gain=1.0561 4.24226 2.70999 1.68336
threshold=-0.96277252626348386 -0.98318658441686835 -0.16944040161029703 -0.95496753289744218
decision_type=2 2 2 2
left_child=1 2 -1 -2
right_child=3 -3 -4 -5
leaf_value=-0.16305682354124759 -0.12092045360778335 0.14946720296768048 0.01536933138023349 -0.0012665969624592736
leaf_weight=4.9104218557476988 6.3635302484035483 12.535234317183493 68.441173933446407 1148.7884611487389
leaf_count=64 26 59 390 5924
internal_value=0 0.0247398 0.00342484 -0.00192575
internal_weight=0 85.8868 73.3516 1155.15
internal_count=6463 513 454 5950
is_linear=0
shrinkage=0.232


Tree=37
num_leaves=5
num_cat=0
split_feature=6 3 6 6
split_gain=1.11444 6.83408 3.62497 4.521
threshold=0.025320408250851942 -0.51895200418355458 0.019064528664414011 0.011589353064641204
decision_type=2 2 2 2
left_child=2 -2 3 -1
right_child=1 -3 -4 -5
leaf_value=-0.0044395754162386506 0.075520529463819083 -0.0028481164785458873 -0.06030027526720122 0.096296036433464405
leaf_weight=680.65497460216284 70.310656547546387 404.1981570199132 59.979375146329403 24.855377927422523
leaf_count=3662 308 2048 334 111
internal_value=0 0.00876421 -0.00554562 -0.000890624
internal_weight=0 474.509 765.49 705.51
internal_count=6463 2356 4107 3773
is_linear=0
shrinkage=0.232


Tree=38
num_leaves=5
num_cat=0
split_feature=7 4 6 6
split_gain=1.07661 3.17378 3.95315 2.84098
threshold=-0.043651020497155489 0.044732298158186044 -0.1283260604677702 0.0050249188401418499
decision_type=2 2 2 2
left_child=1 3 -3 -1
right_child=-2 2 -4 -5
leaf_value=0.0075208067549713611 -0.0069242038306001393 0.12885575475451672 -0.036011190248615529 0.055343590111113443
leaf_weight=410.32608400657773 617.44309556484222 8.3651289641857129 121.91841370612383 79.876925960183144
leaf_count=2192 3291 41 590 349
internal_value=0 0.00675942 -0.0254256 0.0153134
internal_weight=0 620.487 130.284 490.203
internal_count=6463 3172 631 2541
is_linear=0
shrinkage=0.232


Tree=39
num_leaves=5
num_cat=0
split_feature=7 4 4 0
split_gain=1.05813 0.820639 4.33282 1.62826
threshold=-0.30687779551989353 -0.066991246776062677 -0.069816396322433708 0.64285714285713891
decision_type=2 2 2 2
left_child=-1 2 -2 -3
right_child=1 3 -4 -5
leaf_value=0.14528827122848048 0.0040052402356101869 0.0036283685153941977 0.14299091578028819 -0.017268407354025087
leaf_weight=2.6901964247226706 373.27146600186825 521.96277663856745 12.476268760859965 326.07278475537896
leaf_count=14 1887 2558 56 1948
internal_value=0 -0.000371094 0.00850046 -0.00440652
internal_weight=0 1233.78 385.748 848.036
internal_count=6463 6449 1943 4506
is_linear=0
shrinkage=0.232


Tree=40
num_leaves=5
num_cat=0
split_feature=4 4 3 4
split_gain=0.913801 4.83553 6.36264 2.38551
threshold=-0.14951683219210654 -0.11069111923796944 -0.85565185006179845 -0.10132777885901036
decision_type=2 2 2 2
left_child=-1 2 -2 -3
right_child=1 3 -4 -5
leaf_value=-0.019500278288309421 0.28211748339987958 -0.065667271666916799 0.037404856581815547 -0.00041896103292345127
leaf_weight=117.55242417752743 6.1641123592853537 31.09646101295948 79.150674246251583 1000.4854310974479
leaf_count=596 34 147 361 5325
internal_value=0 0.00200416 0.0550857 -0.00238583
internal_weight=0 1116.9 85.3148 1031.58
internal_count=6463 5867 395 5472
is_linear=0
shrinkage=0.232


Tree=41
num_leaves=5
num_cat=0
split_feature=2 7 2 2
split_gain=1.2062 2.45188 1.25537 4.1996
threshold=0.066984995361039149 -0.2449365851434688 0.10507755967304676 0.087232528316581751
decision_type=2 2 2 2
left_child=1 -1 3 -2
right_child=2 -3 -4 -5
leaf_value=-0.062543053915212227 0.00090271352969436484 0.13258983188455797 0.0012113857504724491 -0.11735357844287082
leaf_weight=5.3142911791801444 67.40041521936655 9.9646576792001706 1130.5119687207043 21.26251195371151
leaf_count=37 419 59 5761 187
internal_value=0 0.0647191 -0.000873462 -0.0274567
internal_weight=0 15.2789 1219.17 88.6629
internal_count=6463 96 6367 606
is_linear=0
shrinkage=0.232


Tree=42
num_leaves=5
num_cat=0
split_feature=6 3 1 7
split_gain=0.953039 3.63685 3.09636 2.80475
threshold=0.025320408250851942 -0.41345001974279244 1.0000000180025095e-35 -0.043651020497155489
decision_type=2 2 2 2
left_child=3 2 -2 -1
right_child=1 -3 -4 -5
leaf_value=0.0064939543281900582 0.098866251895807167 -0.00230013640659969 0.014521153077756794 -0.022181549879302272
leaf_weight=451.9545208029449 38.777348980307579 374.44398305565119 59.177305355668068 309.18350730836391
leaf_count=2423 212 1898 246 1684
internal_value=0 0.00811142 0.0479109 -0.00515438
internal_weight=0 472.399 97.9547 761.138
internal_count=6463 2356 458 4107
is_linear=0
shrinkage=0.232


Tree=43
num_leaves=5
num_cat=0
split_feature=6 6 0 1
split_gain=0.743018 1.96658 1.21619 0.000499919
threshold=0.57217036035780999 0.46918123048454979 0.35714285714286126 1.0000000180025095e-35
decision_type=2 2 2 2
left_child=1 2 -1 -2
right_child=3 -3 -4 -5
leaf_value=0.014172269740646051 0.055508082232520309 -0.088837353427662802 -0.0035747283607046152 0.058768935535235059
leaf_weight=266.72625303268433 3.6649883687496159 13.457223147153853 941.40152600780129 8.1752203702926636
leaf_count=1302 18 57 5053 33
internal_value=0 -0.000639041 0.000343392 0.0577596
internal_weight=0 1221.59 1208.13 11.8402
internal_count=6463 6412 6355 51
is_linear=0
shrinkage=0.232


Tree=44
num_leaves=5
num_cat=0
split_feature=7 1 7 4
split_gain=0.774495 1.78901 1.49116 2.31644
threshold=0.47314572591838205 1.0000000180025095e-35 0.24774305793214163 -0.099047568498896357
decision_type=2 2 2 2
left_child=2 -2 -1 -4
right_child=1 -3 3 -5
leaf_value=0.0006018618497737791 -0.087082367030150001 0.048006594404862948 0.03501354995850206 -0.069852009262520443
leaf_weight=1133.2564178928733 6.100707232952117 39.057933926582336 16.120231121778488 38.21699820458889
leaf_count=5959 45 157 96 206
internal_value=0 0.0297567 -0.00119826 -0.0387415
internal_weight=0 45.1586 1187.59 54.3372
internal_count=6463 202 6261 302
is_linear=0
shrinkage=0.232


Tree=45
num_leaves=5
num_cat=0
split_feature=3 3 6 2
split_gain=0.923913 1.28644 5.52334 2.45434
threshold=3.1668015031502761 0.81440544714981844 -0.16949456682107036 0.51090913922772352
decision_type=2 2 2 2
left_child=1 2 -1 -3
right_child=-2 3 -4 -5
leaf_value=0.11406280577338256 0.023442401854180086 -0.04422417612029899 -0.0017698969713212237 0.03839920764703772
leaf_weight=22.651824995875359 83.901526853442192 85.648694083094597 1014.7890957519412 24.999329000711441
leaf_count=116 376 446 5410 115
internal_value=0 -0.00177698 0.000759232 -0.0255566
internal_weight=0 1148.09 1037.44 110.648
internal_count=6463 6087 5526 561
is_linear=0
shrinkage=0.232


Tree=46
num_leaves=5
num_cat=0
split_feature=7 4 4 4
split_gain=0.7677 3.17484 3.44973 2.05538
threshold=0.1718153586999234 0.033963025989734545 -0.020500975389680438 0.78855576474143929
decision_type=2 2 2 2
left_child=-1 2 -2 -3
right_child=1 3 -4 -5
leaf_value=-0.002599291042219959 0.011565145089638261 0.12886475392251945 -0.098936890837764108 0.0072669065947860035
leaf_weight=1029.2210100218654 152.23598080873489 18.979809328913689 16.893638119101524 12.350751578807833
leaf_count=5458 767 90 97 51
internal_value=0 0.0130939 0.000527567 0.0809299
internal_weight=0 200.46 169.13 31.3306
internal_count=6463 1005 864 141
is_linear=0
shrinkage=0.232


Tree=47
num_leaves=5
num_cat=0
split_feature=6 2 4 5
split_gain=0.742107 2.71158 2.77636 2.44245
threshold=-0.025952277032284289 0.12157838921945789 -0.1342196034756572 0.36784920363087159
decision_type=2 2 2 2
left_child=1 -1 -3 -2
right_child=3 2 -4 -5
leaf_value=-0.1084743509254698 -0.0011628270213192851 -0.029621705916793278 0.022171923319946035 -0.062687089158713558
leaf_weight=10.327770829200743 825.61422079056501 69.12994509935379 286.86310104653239 36.25543737411499
leaf_count=77 4326 377 1523 160
internal_value=0 0.00871439 0.0121142 -0.00375091
internal_weight=0 366.321 355.993 861.87
internal_count=6463 1977 1900 4486
is_linear=0
shrinkage=0.232


Tree=48
num_leaves=5
num_cat=0
split_feature=3 3 3 6
split_gain=0.714071 1.88714 1.21904 4.47197
threshold=-1.0614111104409014 -1.0699795682704927 -0.96277252626348386 -0.0046669375777801305
decision_type=2 2 2 2
left_child=1 -1 3 -2
right_child=2 -3 -4 -5
leaf_value=0.052777429115737684 0.09153077950277605 -0.092922470253996789 -0.0010460435063541934 -0.031106712219611716
leaf_weight=7.3293506801128414 32.882650554180145 13.781904458999632 1141.9066338390112 31.178693920373917
leaf_count=46 159 144 5950 164
internal_value=0 -0.0423388 0.000701034 0.031843
internal_weight=0 21.1113 1205.97 64.0613
internal_count=6463 190 6273 323
is_linear=0
shrinkage=0.232


Tree=49
num_leaves=5
num_cat=0
split_feature=7 2 3 2
split_gain=0.669527 0.632739 1.59246 0.910579
threshold=-0.30687779551989353 0.066984995361039149 0.36531105624748633 0.10507755967304676
decision_type=2 2 2 2
left_child=-1 2 -2 -3
right_child=1 3 -4 -5
leaf_value=0.1199883789150772 0.12397145471440488 -0.024032871851022371 -0.024066813098905487 0.00086553182272339137
leaf_weight=2.496206432580947 7.4261674731969824 85.047203570604324 8.262808218598364 1122.8137251101434
leaf_count=14 35 598 61 5755
internal_value=0 -0.000286318 0.0460051 -0.0008876
internal_weight=0 1223.55 15.689 1207.86
internal_count=6463 6449 96 6353
is_linear=0
shrinkage=0.232


Tree=50
num_leaves=5
num_cat=0
split_feature=4 2 2 6
split_gain=0.736099 4.33172 3.78088 1.49807
threshold=-0.066991246776062677 0.78006770211071308 0.69782175265992152 -0.049160080562530774
decision_type=2 2 2 2
left_child=1 2 -1 -2
right_child=3 -3 -4 -5
leaf_value=0.0067462323914241149 0.018077002102566346 -0.12472407529108177 0.10134960577444506 -0.0082401010620580771
leaf_weight=346.4690401032567 139.57008091360331 12.721866950392721 24.335280865430832 701.93722096085548
leaf_count=1789 696 52 102 3824
internal_value=0 0.00838798 0.0129549 -0.00387522
internal_weight=0 383.526 370.804 841.507
internal_count=6463 1943 1891 4520
is_linear=0
shrinkage=0.232


Tree=51
num_leaves=5
num_cat=0
split_feature=6 5 1 7
split_gain=0.824378 2.65981 6.94841 1.90197
threshold=0.025320408250851942 -0.076602284815286983 1.0000000180025095e-35 1.0000000180025095e-35
decision_type=2 2 2 2
left_child=-1 2 -2 -3
right_child=1 3 -4 -5
leaf_value=-0.0047833250297547539 0.21294018958828637 -0.015039787191237821 -0.0045358061765234823 0.015943721034996056
leaf_weight=753.18643032386899 11.927228614687918 187.09674361348152 23.462809488177299 247.98324586451054
leaf_count=4107 61 876 98 1321
internal_value=0 0.00759505 0.0687584 0.00261993
internal_weight=0 470.47 35.39 435.08
internal_count=6463 2356 159 2197
is_linear=0
shrinkage=0.232


Tree=52
num_leaves=5
num_cat=0
split_feature=6 6 2 6
split_gain=0.687381 2.29032 2.1928 2.008
threshold=0.18192358369075093 0.22332982529758724 0.5059120531681508 0.15559938826168387
decision_type=2 2 2 2
left_child=3 -2 -3 -1
right_child=1 2 -4 -5
leaf_value=3.1000859040938625e-05 0.19312270689289349 0.060133683035405457 -0.023240112341914546 -0.0657535947542187
leaf_weight=1124.8347817435861 3.968737766146659 29.365382865071297 40.254356577992439 25.541284695267677
leaf_count=6022 16 131 169 125
internal_value=0 0.0216989 0.0119267 -0.00142959
internal_weight=0 73.5885 69.6197 1150.38
internal_count=6463 316 300 6147
is_linear=0
shrinkage=0.232


Tree=53
num_leaves=5
num_cat=0
split_feature=4 1 7 4
split_gain=0.646192 0.577328 2.26746 1.69591
threshold=1.2416504902210634 1.0000000180025095e-35 0.23493082891923969 -0.15424506707822741
decision_type=2 2 2 2
left_child=1 2 -1 -3
right_child=-2 3 -4 -5
leaf_value=-0.001212807706435107 -0.070898397088253767 -0.039492027784012555 -0.060449000352914922 0.0076957575488832966
leaf_weight=482.51572110876441 6.8870428428053847 43.740067064762115 37.482858575880527 652.92485237121582
leaf_count=3075 54 193 254 2887
internal_value=0 0.000366878 -0.00548271 0.00473308
internal_weight=0 1216.66 519.999 696.665
internal_count=6463 6409 3329 3080
is_linear=0
shrinkage=0.232


Tree=54
num_leaves=5
num_cat=0
split_feature=5 2 0 2
split_gain=0.681242 2.73907 1.88117 1.78291
threshold=0.057720147587320657 0.87500000000000011 1.0000000180025095e-35 0.66384545806951822
decision_type=2 2 2 2
left_child=1 -1 -2 -4
right_child=2 -3 3 -5
leaf_value=-0.0030491006278033444 0.12923624465712386 -0.25477470011440029 -0.0018965183151866127 0.03857144847967435
leaf_weight=834.84031630307436 6.7725332528352729 2.3331201076507559 305.20411344617605 72.521810248494148
leaf_count=4546 33 10 1553 321
internal_value=0 -0.00375064 0.00804607 0.00587316
internal_weight=0 837.173 384.498 377.726
internal_count=6463 4556 1907 1874
is_linear=0
shrinkage=0.232


Tree=55
num_leaves=5
num_cat=0
split_feature=2 2 2 0
split_gain=0.712207 1.67711 2.15612 1.48526
threshold=0.49294532627865967 0.49128140731194175 0.48340548340548345 1.0000000180025095e-35
decision_type=2 2 2 2
left_child=1 2 -1 -2
right_child=3 -3 -4 -5
leaf_value=0.0041398177623302853 0.068139093125938188 0.088043369197541993 -0.28612224080881676 -0.0079693138599118835
leaf_weight=640.84447995945811 14.155758425593374 12.887562513351439 1.3803937733173359 550.82890935242176
leaf_count=3926 62 55 9 2411
internal_value=0 0.00517878 0.00351593 -0.00606241
internal_weight=0 655.112 642.225 564.985
internal_count=6463 3990 3935 2473
is_linear=0
shrinkage=0.232


end of trees

feature_importances:
MovAvgRes=43
0=36
1=35
3=33
2=25
4=25
Year=16
Nosocomial=11

parameters:
[boosting: gbdt]
[objective: binary]
[metric: balanced_accuracy,binary_logloss]
[tree_learner: serial]
[device_type: cpu]
[data: ]
[valid: ]
[num_iterations: 56]
[learning_rate: 0.232]
[num_leaves: 5]
[num_threads: -1]
[deterministic: 0]
[force_col_wise: 0]
[force_row_wise: 0]
[histogram_pool_size: -1]
[max_depth: 3]
[min_data_in_leaf: 5]
[min_sum_hessian_in_leaf: 0.001]
[bagging_fraction: 0.2]
[pos_bagging_fraction: 1]
[neg_bagging_fraction: 1]
[bagging_freq: 0]
[bagging_seed: 3]
[feature_fraction: 0.652]
[feature_fraction_bynode: 1]
[feature_fraction_seed: 2]
[extra_trees: 0]
[extra_seed: 6]
[early_stopping_round: 0]
[first_metric_only: 0]
[max_delta_step: 0]
[lambda_l1: 0]
[lambda_l2: 0]
[linear_lambda: 0]
[min_gain_to_split: 0]
[drop_rate: 0.1]
[max_drop: 50]
[skip_drop: 0.5]
[xgboost_dart_mode: 0]
[uniform_drop: 0]
[drop_seed: 4]
[top_rate: 0.2]
[other_rate: 0.1]
[min_data_per_group: 100]
[max_cat_threshold: 32]
[cat_l2: 10]
[cat_smooth: 10]
[max_cat_to_onehot: 4]
[top_k: 20]
[monotone_constraints: ]
[monotone_constraints_method: basic]
[monotone_penalty: 0]
[feature_contri: ]
[forcedsplits_filename: ]
[refit_decay_rate: 0.9]
[cegb_tradeoff: 1]
[cegb_penalty_split: 0]
[cegb_penalty_feature_lazy: ]
[cegb_penalty_feature_coupled: ]
[path_smooth: 0]
[interaction_constraints: ]
[verbosity: -1]
[saved_feature_importance_type: 0]
[linear_tree: 0]
[max_bin: 255]
[max_bin_by_feature: ]
[min_data_in_bin: 3]
[bin_construct_sample_cnt: 200000]
[data_random_seed: 1]
[is_enable_sparse: 1]
[enable_bundle: 1]
[use_missing: 1]
[zero_as_missing: 0]
[feature_pre_filter: 1]
[pre_partition: 0]
[two_round: 0]
[header: 0]
[label_column: ]
[weight_column: ]
[group_column: ]
[ignore_column: ]
[categorical_feature: ]
[forcedbins_filename: ]
[precise_float_parser: 0]
[parser_config_file: ]
[objective_seed: 5]
[num_class: 1]
[is_unbalance: 0]
[scale_pos_weight: 1]
[sigmoid: 1]
[boost_from_average: 1]
[reg_sqrt: 0]
[alpha: 0.9]
[fair_c: 1]
[poisson_max_delta_step: 0.7]
[tweedie_variance_power: 1.5]
[lambdarank_truncation_level: 30]
[lambdarank_norm: 1]
[label_gain: ]
[eval_at: ]
[multi_error_top_k: 1]
[auc_mu_weights: ]
[num_machines: 1]
[local_listen_port: 12400]
[time_out: 120]
[machine_list_filename: ]
[machines: ]
[gpu_platform_id: -1]
[gpu_device_id: -1]
[gpu_use_dp: 0]
[num_gpu: 1]

end of parameters

pandas_categorical:[]
